svm_type c_svc
kernel_type rbf
gamma 8
nr_class 4
total_sv 969
rho -41.4543 -16.244 -159.727 22.2435 -0.859719 -218.489
label 0 1 2 20
nr_sv 498 48 421 2
SV
0 32768 0 1:0.71319 2:0 3:0.5 4:0.42 
0 32768 0 1:0.728528 2:0 3:0.5 4:0.85 
0 15.34041704185634 0 1:0.817485 2:0.9 3:0.5 4:0.22 
0 13.27652328941944 0 1:0.83589 2:0.9 3:0.5 4:0.23 
0 2128.070723933205 0 1:0.924847 2:0 3:0.5 4:0.59 
489.5683323040667 0 0 1:0.059701 2:0.8 3:0.5 4:0.26 
0 285.429886100589 0 1:0.659836 2:0.3 3:0.5 4:0.2 
0 9.873894997093798 0 1:0.249649 2:0 3:0.2 4:0 
0 32768 0 1:0.295933 2:0 3:0.5 4:0.11 
0 32768 0 1:0.297335 2:0 3:0.5 4:0.08 
0 32768 0 1:0.298738 2:0 3:0.5 4:0.09 
0 32768 0 1:0.381487 2:0 3:0.5 4:0.19 
0 32768 0 1:0.398317 2:0 3:0.5 4:0.19 
0 32768 0 1:0.408135 2:0 3:0.5 4:0.19 
0 32768 0 1:0.409537 2:0 3:0.5 4:1 
0 32768 0 1:0.426367 2:0 3:0.5 4:0.19 
0 32768 0 1:0.436185 2:0 3:0.5 4:0.19 
0 28661.16766033924 0 1:0.454418 2:0 3:0.5 4:0.19 
0 32768 0 1:0.499299 2:0 3:0.5 4:0.19 
4303.231905850601 0 0 1:0.593268 2:0 3:0.5 4:0.19 
18675.48670027033 0 0 1:0.610098 2:0.9 3:0.5 4:0.13 
1752.518563984484 0 0 1:0.649369 2:0.9 3:0.5 4:0.17 
1450.285037335097 0 0 1:0.092657 2:0.5 3:0.5 4:0.14 
0 3193.947895829365 0 1:0.25 2:0.3 3:0.5 4:0.48 
0 4953.845124335883 0 1:0.258741 2:0.3 3:0.1 4:0.02 
0 147.3560671505496 0 1:0.267483 2:0.3 3:0.5 4:0.8 
0 32768 0 1:0.578671 2:0 3:0.5 4:0.33 
0 12698.64090763485 0 1:0.160473 2:0.3 3:0.5 4:0.06 
0 22299.12595270362 0 1:0.209459 2:0.7 3:0.5 4:0.46 
0 32768 0 1:0.540541 2:0 3:0.5 4:0.34 
149.4391585842508 0 0 1:0.10104 2:0.5 3:0.5 4:0.2 
0 32768 0 1:0.443536 2:0 3:0.5 4:0.08 
0 32768 0 1:0.444279 2:0 3:0.5 4:0.09 
0 32768 0 1:0.491085 2:0 3:0.5 4:0.08 
0 32768 0 1:0.491828 2:0 3:0.5 4:0.09 
3402.210730305971 0 0 1:0.569837 2:0.5 3:0.5 4:0.2 
1245.645960217448 0 0 1:0.594354 2:0.5 3:0.5 4:0.2 
1734.219471495726 0 0 1:0.65156 2:0.9 3:0.5 4:0.11 
20223.8839837999 0 0 1:0.07722 2:0.5 3:0.5 4:0.16 
0 4140.557299142481 0 1:0.172917 2:0.5 3:0.5 4:0.21 
4233.632852179067 0 0 1:0.027027 2:0.8 3:0.5 4:0.61 
80.08782740457644 0 0 1:0.261261 2:0.3 3:0.5 4:0.38 
0 2576.927477563373 0 1:0.540541 2:0.3 3:0.5 4:0.19 
0 27242.01457644719 0 1:0.558559 2:0.3 3:0.5 4:0.1 
0 32768 0 1:0.28595 2:0 3:0.5 4:0.06 
437.7653074237144 0 0 1:0.06747 2:0.7 3:0.5 4:0.07 
0 8204.794017224311 0 1:0.66988 2:0.5 3:0.5 4:0.36 
438.4544261580966 0 0 1:0.146199 2:0.3 3:0.5 4:0.24 
0 32768 0 1:0.260234 2:0 3:0.5 4:1 
2269.826688256785 0 0 1:0.060403 2:0.8 3:0.5 4:0.49 
764.1184664289568 0 0 1:0.281879 2:0.3 3:0.5 4:0.27 
32768 0 0 1:0.010511 2:0.8 3:0.5 4:0.47 
151.6964065600814 0 0 1:0.086336 2:0.7 3:0.5 4:0.1 
0 7299.74564957522 0 1:0.164414 2:0.7 3:0.5 4:0.23 
0 32768 0 1:0.476727 2:0 3:0.5 4:0.03 
0 32768 0 1:0.483483 2:0 3:0.5 4:0.04 
0 32768 0 1:0.506006 2:0 3:0.5 4:0.09 
0 26909.37057479796 0 1:0.842342 2:0 3:0.5 4:0.4 
0 32768 0 1:0.871622 2:0 3:0.5 4:0.4 
0 29863.91469221309 0 1:0.900901 2:0 3:0.5 4:0.4 
0 32768 0 1:0.593878 2:0 3:0.5 4:0.72 
0 4859.084577827393 0 1:0.122939 2:0 3:0.5 4:0.19 
0 5280.807686156626 0 1:0.144607 2:0 3:0.5 4:0.03 
0 1503.759006380852 0 1:0.202544 2:0.3 3:0.5 4:0.7 
0 32768 0 1:0.235045 2:0 3:0.5 4:0.15 
0 19008.63297755209 0 1:0.243523 2:0.5 3:0.5 4:0.24 
0 32768 64.73619736045976 1:0.282148 2:0 3:0.5 4:0.05 
0 32768 0 1:0.283561 2:0 3:0.5 4:0.05 
0 32768 0 1:0.284974 2:0 3:0.5 4:0.05 
0 3368.9014288222 0 1:0.291098 2:0 3:0.5 4:0.04 
0.001212749228907576 32768 0 1:0.292511 2:0 3:0.5 4:0.47 
0 0.02904290916785966 0 1:0.848328 2:0 3:0.5 4:0.1 
0 32768 0 1:0.879887 2:0 3:0.5 4:0.03 
0 32768 0 1:0.218794 2:0 3:0.5 4:0.03 
0 32768 0 1:0.228612 2:0 3:0.5 4:0.03 
0 32768 0 1:0.232819 2:0 3:0.5 4:0.03 
0 32768 0 1:0.242637 2:0 3:0.5 4:0.03 
0 32768 0 1:0.246844 2:0 3:0.5 4:0.03 
0 15775.09838098795 0 1:0.251052 2:0 3:0.5 4:0.03 
0 32768 0 1:0.255259 2:0 3:0.5 4:0.03 
0 32768 0 1:0.890603 2:0 3:0.5 4:0.06 
0 6471.070786215451 0 1:0.175092 2:0.3 3:0.1 4:0.06 
0 32768 0 1:0.352651 2:0.3 3:0 4:0.15 
0 856.6131342024072 0 1:0.210423 2:0.3 3:0.5 4:0.16 
0 32768 0 1:0.22468 2:0.3 3:0.5 4:0.09 
0 32768 0 1:0.342675 2:0 3:0.5 4:0.03 
0 24867.03639710318 0 1:0.343412 2:0 3:0.5 4:0.03 
0 32768 0 1:0.374385 2:0 3:0.5 4:0.08 
0 32768 0 1:0.375123 2:0 3:0.5 4:0.09 
0 32768 0 1:0.420354 2:0 3:0.5 4:0.04 
0 32768 0 1:0.43412 2:0 3:0.5 4:0.67 
0 32768 0 1:0.438299 2:0 3:0.5 4:0.89 
0 32768 0 1:0.442478 2:0 3:0.5 4:0.43 
0 32768 0 1:0.446657 2:0 3:0.5 4:0.56 
0 32768 0 1:0.450836 2:0 3:0.5 4:0.38 
0 32768 0 1:0.455015 2:0 3:0.5 4:0.8 
0 32768 0 1:0.459194 2:0 3:0.5 4:0.73 
0 32768 0 1:0.463373 2:0 3:0.5 4:0.52 
0 32768 0 1:0.471731 2:0 3:0.5 4:0.68 
0 32768 0 1:0.47591 2:0 3:0.5 4:0.74 
0 32768 0 1:0.480088 2:0 3:0.5 4:0.67 
0 32768 0 1:0.484267 2:0 3:0.5 4:0.41 
0 32768 0 1:0.488446 2:0 3:0.5 4:0.44 
0 32768 0 1:0.492625 2:0 3:0.5 4:0.61 
0 32768 0 1:0.496804 2:0 3:0.5 4:0.42 
0 32768 0 1:0.500983 2:0 3:0.5 4:0.51 
0 32768 0 1:0.505162 2:0 3:0.5 4:0.76 
0 32768 0 1:0.509341 2:0 3:0.5 4:0.61 
0 32768 0 1:0.51352 2:0 3:0.5 4:0.67 
0 10511.80409480568 0 1:0.544494 2:0.3 3:0 4:0.15 
0 32768 0 1:0.56588 2:0 3:0.5 4:0.08 
0 32768 0 1:0.566618 2:0 3:0.5 4:0.09 
0 65.78176963806251 0 1:0.583825 2:0.7 3:0.5 4:0.42 
14.50382571160725 0 0 1:0.646264 2:0.9 3:1 4:0.23 
0 5252.947852038369 0 1:0.205505 2:0.3 3:0.5 4:0.04 
0 32768 0 1:0.298471 2:0 3:0.5 4:0.11 
0 32768 0 1:0.300306 2:0 3:0.5 4:0.08 
0 32768 0 1:0.302141 2:0 3:0.5 4:0.09 
0 32768 0 1:0.357187 2:0 3:0.5 4:0.19 
0 32768 0 1:0.365749 2:0 3:0.5 4:0.19 
0 32768 0 1:0.367584 2:0 3:0.5 4:0.22 
0 32768 0 1:0.376758 2:0 3:0.5 4:0.19 
0 32768 0 1:0.378593 2:0 3:0.5 4:0.26 
0 32768 0 1:0.387768 2:0 3:0.5 4:0.19 
0 32768 0 1:0.403058 2:0 3:0.5 4:0.19 
0 32768 0 1:0.411621 2:0 3:0.5 4:0.19 
0 32768 0 1:0.42263 2:0 3:0.5 4:0.19 
0 32768 0 1:0.433639 2:0 3:0.5 4:0.19 
0 32768 0 1:0.479511 2:0 3:0.5 4:0.19 
0 32768 0 1:0.500917 2:0 3:0.5 4:0.19 
0 32768 0 1:0.502752 2:0 3:0.5 4:0.19 
0 32768 0 1:0.522324 2:0 3:0.5 4:0.19 
0 32768 0 1:0.584709 2:0 3:0.5 4:1 
0 11978.64396281317 0 1:0.207285 2:0.3 3:0.5 4:0.02 
0 32768 0 1:0.325828 2:0 3:0.5 4:0.11 
0 32768 0 1:0.330464 2:0 3:0.5 4:0.11 
0 32768 0 1:0.358278 2:0 3:0.5 4:0.11 
0 32768 0 1:0.359603 2:0 3:0.5 4:0.08 
0 32768 0 1:0.360927 2:0 3:0.5 4:0.09 
0 5831.329722205101 0 1:0.186916 2:0.3 3:0.5 4:0.06 
0 510.5147400286959 0 1:0.29506 2:0.3 3:0.5 4:0.75 
0 1749.745151257521 0 1:0.438585 2:0.3 3:0.5 4:0.08 
0 32768 0 1:0.893191 2:0 3:0.5 4:0.14 
0 3820.618750090405 0 1:0.259925 2:0.7 3:0.5 4:0.48 
0 515.2795380496688 0 1:0.298876 2:0.3 3:0.1 4:0.03 
0 326.3519051040121 0 1:0.653184 2:0.5 3:0.5 4:0.33 
0 32768 0 1:0.88015 2:0 3:0.5 4:0.14 
0 9411.584315266789 0 1:0.743439 2:0 3:0.5 4:0.4 
0 32768 0 1:0.25508 2:0 3:0.5 4:0.04 
0 32768 0 1:0.257219 2:0 3:0.5 4:0.04 
0 195.3344786119681 0 1:0.549198 2:0.5 3:0.5 4:0.11 
0 13409.26055730826 0 1:0.214499 2:0.7 3:0.5 4:0.33 
0 6.090655831947054 0 1:0.272095 2:0.7 3:0.5 4:0.85 
0 17507.73773885547 0 1:0.406157 2:0 3:0.5 4:0.2 
0 32768 0 1:0.408143 2:0 3:0.5 4:0.31 
0 32768 0 1:0.437934 2:0 3:0.5 4:0.98 
32768 0 0 1:0.020854 2:0.8 3:0.5 4:0.09 
0 12231.81415098648 0 1:0.214499 2:0.7 3:0.5 4:0.33 
32767.8369057721 0 0 1:0.264151 2:1 3:0.5 4:0.09 
0 67.2855500730375 0 1:0.272095 2:0.7 3:0.5 4:0.85 
0 32768 0 1:0.285998 2:0 3:0.5 4:0.3 
0 32768 0 1:0.287984 2:0 3:0.5 4:1 
0 32768 0 1:0.28997 2:0 3:0.5 4:1 
0 32768 0 1:0.291956 2:0 3:0.5 4:1 
0 32768 0 1:0.293942 2:0 3:0.5 4:1 
0 32768 0 1:0.295929 2:0 3:0.5 4:1 
0 32768 0 1:0.337637 2:0 3:0.5 4:0.3 
0 32768 0 1:0.339623 2:0 3:0.5 4:1 
0 32768 0 1:0.341609 2:0 3:0.5 4:1 
0 32768 0 1:0.343595 2:0 3:0.5 4:1 
0 32768 0 1:0.345581 2:0 3:0.5 4:1 
0 32768 0 1:0.347567 2:0 3:0.5 4:1 
0 23532.96658112879 0 1:0.406157 2:0 3:0.5 4:0.2 
0 32768 0 1:0.408143 2:0 3:0.5 4:0.31 
0 32768 0 1:0.437934 2:0 3:0.5 4:0.98 
0 32768 0 1:0.263957 2:0 3:0.5 4:0.13 
0 32768 0 1:0.780099 2:0 3:0.5 4:0.59 
0 32768 0 1:0.800608 2:0 3:0.5 4:0.57 
0 32768 0 1:0.865553 2:0 3:0.5 4:0.14 
0 32768 0 1:0.875807 2:0 3:0.5 4:0.13 
0 120.5966638511973 0 1:0.341624 2:0.2 3:0.2 4:0.19 
0 32645.58571670457 0 1:0.375274 2:0.3 3:0 4:0.15 
0 32768 0 1:0.470373 2:0 3:0.5 4:0.06 
0 26121.5064242029 0 1:0.985369 2:0 3:0.5 4:0.11 
0 32768 0 1:0.433922 2:0 3:0.5 4:0.06 
0 32768 0 1:0.253633 2:0 3:0.5 4:0.06 
0 32768 0 1:0.724567 2:0 3:0.5 4:0.59 
0 32768 0 1:0.249913 2:0 3:0.5 4:0.1 
0 32768 0 1:0.722395 2:0 3:0.5 4:0.59 
0 26523.55618306572 0 1:0.741087 2:0 3:0.5 4:0.57 
0 32768 0 1:0.863274 2:0 3:0.5 4:0.09 
0 20377.05829174241 0 1:0.866736 2:0 3:0.5 4:0.1 
0 32768 0 1:0.869231 2:0 3:0.5 4:1 
1816.451589449763 0 0 1:0.646983 2:0.9 3:0.5 4:0.11 
0 5382.732732968841 0 1:0.657253 2:0.5 3:0.5 4:0.45 
0 7818.528759989091 0 1:0.98973 2:0 3:0.5 4:1 
0 32768 0 1:0.294118 2:0 3:0.5 4:0.46 
0 197.0167172712579 0 1:0.273585 2:0.2 3:0.5 4:0.13 
0 5239.228181783255 0 1:0.484906 2:0.2 3:0.5 4:0.11 
0 5399.048966645272 0 1:0.507547 2:0.2 3:0.5 4:0.11 
2954.63768608947 0 0 1:0.743396 2:0.2 3:0.5 4:0.16 
0 32768 0 1:0.225602 2:0 3:0.5 4:0.1 
0 0 21.66760479098845 1:0.277567 2:0 3:0.5 4:0.01 
0 26938.73428524371 0 1:0.980989 2:0 3:0.5 4:0.14 
30926.57570444484 0 0 1:0.019964 2:0.8 3:0.5 4:0.23 
0 32768 0 1:0.196216 2:0 3:0.5 4:0.23 
0 32768 0 1:0.206499 2:0 3:0.5 4:0.17 
0 11682.4509029476 0 1:0.220485 2:0.3 3:0.5 4:0.02 
0 32768 0 1:0.270259 2:0 3:0.5 4:0.09 
0 32768 0 1:0.272316 2:0 3:0.5 4:0.07 
0 32768 0 1:0.285479 2:0 3:0.5 4:0.17 
0 32768 0 1:0.518305 2:0 3:0.5 4:0.04 
0 32768 0 1:0.528178 2:0 3:0.5 4:0.17 
0 32768 0 1:0.538873 2:0 3:0.5 4:0.18 
0 32768 0 1:0.551213 2:0 3:0.5 4:0.18 
0 32768 0 1:0.63225 2:0 3:0.5 4:0.08 
32768 0 0 1:0.012605 2:0.8 3:0.5 4:0.2 
0 3067.97897893328 0 1:0.109244 2:0.5 3:0.5 4:0.06 
0 1062.740359196006 0 1:0.113445 2:0.5 3:0.5 4:0.06 
0 15320.40167990419 0 1:0.134454 2:0.5 3:0.5 4:0.09 
0 32768 0 1:0.686975 2:0 3:0.5 4:1 
0 14923.24305165458 0 1:0.813025 2:0 3:0.5 4:0.01 
0 27566.49733027096 0 1:0.82563 2:0 3:0.5 4:0.01 
0 97.59580600119891 0 1:0.991597 2:0 3:0.5 4:0.16 
0 38.74736985089135 0 1:0.245302 2:0.7 3:0.5 4:0.23 
0 32768 0 1:0.315529 2:0 3:0.5 4:1 
0 32768 0 1:0.342235 2:0 3:0.5 4:0.19 
0 32768 0 1:0.347181 2:0 3:0.5 4:0.08 
0 32768 0 1:0.604352 2:0 3:0.5 4:0.08 
2384.002993622265 32768 0 1:0.610287 2:0 3:0.5 4:0.15 
32768 0 0 1:0.616222 2:0 3:0.5 4:0.18 
0 32768 0 1:0.619189 2:0 3:0.5 4:0.13 
0 32768 0 1:0.643917 2:0 3:0.5 4:0.33 
0 32768 0 1:0.659743 2:0 3:0.5 4:0.3 
1576.651801299702 0 0 1:0.854797 2:0.2 3:0.5 4:0.08 
0 10259.10647698903 0 1:0.893691 2:0 3:0.5 4:0.04 
0 15119.01533491792 0 1:0.961106 2:0 3:0.5 4:0.01 
37.5607859822474 0 0 1:0.98185 2:0.2 3:0.5 4:0.22 
0 14.09017047772266 0 1:0.637874 2:0.2 3:0.5 4:0.15 
0 14946.95127964645 0 1:0.077165 2:0.5 3:0.5 4:0.07 
0 32768 0 1:0.340157 2:0 3:0.5 4:0.21 
0 32768 0 1:0.354331 2:0 3:0.5 4:0.28 
0 32768 0 1:0.368504 2:0 3:0.5 4:0.24 
0 32768 0 1:0.382677 2:0 3:0.5 4:0.3 
0 32768 0 1:0.540157 2:0 3:0.5 4:0.16 
0 32768 0 1:0.683465 2:0 3:0.5 4:0.31 
0 32768 0 1:0.71319 2:0 3:0.5 4:0.42 
0 32768 0 1:0.728528 2:0 3:0.5 4:0.85 
0 95.93690854890036 0 1:0.817485 2:0.9 3:0.5 4:0.22 
0 21.98692223143266 0 1:0.83589 2:0.9 3:0.5 4:0.23 
0 32117.61421586479 0 1:0.924847 2:0 3:0.5 4:0.59 
3443.944893313757 0 0 1:0.059701 2:0.8 3:0.5 4:0.26 
0 427.6484134026386 0 1:0.659836 2:0.3 3:0.5 4:0.2 
0 305.5524675069358 0 1:0.249649 2:0 3:0.2 4:0 
0 32768 0 1:0.295933 2:0 3:0.5 4:0.11 
0 32768 0 1:0.297335 2:0 3:0.5 4:0.08 
0 32768 0 1:0.298738 2:0 3:0.5 4:0.09 
0 32768 0 1:0.381487 2:0 3:0.5 4:0.19 
0 32768 0 1:0.398317 2:0 3:0.5 4:0.19 
0 32768 0 1:0.408135 2:0 3:0.5 4:0.19 
0 32768 0 1:0.409537 2:0 3:0.5 4:1 
0 32768 0 1:0.426367 2:0 3:0.5 4:0.19 
0 32768 0 1:0.436185 2:0 3:0.5 4:0.19 
0 23300.66998947302 0 1:0.454418 2:0 3:0.5 4:0.19 
0 32768 0 1:0.499299 2:0 3:0.5 4:0.19 
6632.274508336742 0 0 1:0.593268 2:0 3:0.5 4:0.19 
32163.12618399306 0 0 1:0.610098 2:0.9 3:0.5 4:0.13 
3460.899388595566 0 0 1:0.649369 2:0.9 3:0.5 4:0.17 
7179.948344199843 0 0 1:0.092657 2:0.5 3:0.5 4:0.14 
0 1000.554940668071 0 1:0.25 2:0.3 3:0.5 4:0.48 
0 12.76973361263713 0 1:0.258741 2:0.3 3:0.1 4:0.02 
0 339.0038642692547 0 1:0.267483 2:0.3 3:0.5 4:0.8 
0 32768 0 1:0.578671 2:0 3:0.5 4:0.33 
0 1110.028822549994 0 1:0.160473 2:0.3 3:0.5 4:0.06 
0 32768 0 1:0.209459 2:0.7 3:0.5 4:0.46 
0 32768 0 1:0.540541 2:0 3:0.5 4:0.34 
608.9259605095783 0 0 1:0.076523 2:0.9 3:0.5 4:0.02 
4731.347243473773 0 0 1:0.10104 2:0.5 3:0.5 4:0.2 
0 32768 0 1:0.443536 2:0 3:0.5 4:0.08 
0 32768 0 1:0.444279 2:0 3:0.5 4:0.09 
0 32768 0 1:0.491085 2:0 3:0.5 4:0.08 
0 32768 0 1:0.491828 2:0 3:0.5 4:0.09 
30008.18080588907 0 0 1:0.569837 2:0.5 3:0.5 4:0.2 
30511.36686043314 0 0 1:0.594354 2:0.5 3:0.5 4:0.2 
1682.757812628623 0 0 1:0.65156 2:0.9 3:0.5 4:0.11 
31575.28462347091 0 0 1:0.07722 2:0.5 3:0.5 4:0.16 
4805.535321169926 0 0 1:0.00625 2:0.8 3:0.5 4:0.16 
0 25495.10517532135 0 1:0.172917 2:0.5 3:0.5 4:0.21 
1017.919951908345 0 0 1:0.027027 2:0.8 3:0.5 4:0.61 
29.03241388336886 0 0 1:0.261261 2:0.3 3:0.5 4:0.38 
0 5879.937810777695 0 1:0.540541 2:0.3 3:0.5 4:0.19 
0 22826.13383177285 0 1:0.558559 2:0.3 3:0.5 4:0.1 
0 32768 0 1:0.28595 2:0 3:0.5 4:0.06 
218.8734982892594 0 0 1:0.06747 2:0.7 3:0.5 4:0.07 
0 214.1220963559593 0 1:0.66988 2:0.5 3:0.5 4:0.36 
266.4634614127364 0 0 1:0.146199 2:0.3 3:0.5 4:0.24 
0 32768 0 1:0.260234 2:0 3:0.5 4:1 
83.75985989969138 0 0 1:0.060403 2:0.8 3:0.5 4:0.49 
576.7960843299822 0 0 1:0.281879 2:0.3 3:0.5 4:0.27 
21989.72779492434 0 0 1:0.010511 2:0.8 3:0.5 4:0.47 
79.95923067286361 0 0 1:0.086336 2:0.7 3:0.5 4:0.1 
0 119.6967470540043 0 1:0.164414 2:0.7 3:0.5 4:0.23 
0 32768 0 1:0.476727 2:0 3:0.5 4:0.03 
0 32768 0 1:0.483483 2:0 3:0.5 4:0.04 
0 32768 0 1:0.506006 2:0 3:0.5 4:0.09 
0 25171.95928214823 0 1:0.842342 2:0 3:0.5 4:0.4 
0 32768 0 1:0.871622 2:0 3:0.5 4:0.4 
0 32768 0 1:0.900901 2:0 3:0.5 4:0.4 
0 32768 0 1:0.593878 2:0 3:0.5 4:0.72 
0 4186.350061589123 0 1:0.122939 2:0 3:0.5 4:0.19 
0 20066.13891766294 0 1:0.144607 2:0 3:0.5 4:0.03 
0 1562.411216788876 0 1:0.202544 2:0.3 3:0.5 4:0.7 
0 32768 0 1:0.235045 2:0 3:0.5 4:0.15 
0 18188.76887049389 0 1:0.243523 2:0.5 3:0.5 4:0.24 
0 32768 18741.40450456078 1:0.282148 2:0 3:0.5 4:0.05 
0 32768 0 1:0.283561 2:0 3:0.5 4:0.05 
0 32768 0 1:0.284974 2:0 3:0.5 4:0.05 
0 4593.500424783091 10417.09124028663 1:0.291098 2:0 3:0.5 4:0.04 
4.265130067972465 32768 0 1:0.292511 2:0 3:0.5 4:0.47 
0 19685.35687799102 0 1:0.848328 2:0 3:0.5 4:0.1 
0 32768 0 1:0.879887 2:0 3:0.5 4:0.03 
0 32768 0 1:0.218794 2:0 3:0.5 4:0.03 
0 32768 0 1:0.228612 2:0 3:0.5 4:0.03 
0 32768 0 1:0.232819 2:0 3:0.5 4:0.03 
0 32768 0 1:0.242637 2:0 3:0.5 4:0.03 
0 32768 0 1:0.246844 2:0 3:0.5 4:0.03 
0 31699.02715045187 0 1:0.251052 2:0 3:0.5 4:0.03 
0 32768 0 1:0.255259 2:0 3:0.5 4:0.03 
0 32768 0 1:0.890603 2:0 3:0.5 4:0.06 
0 1582.46640595079 0 1:0.175092 2:0.3 3:0.1 4:0.06 
0 32768 0 1:0.352651 2:0.3 3:0 4:0.15 
275.4765645003892 0 0 1:0.589396 2:0.5 3:0.5 4:0.18 
0 3492.113790641394 0 1:0.210177 2:0.5 3:0.5 4:0.16 
0 734.7502236342585 0 1:0.210423 2:0.3 3:0.5 4:0.16 
0 23997.26733899626 0 1:0.212144 2:0.3 3:0.5 4:0.14 
0 32768 0 1:0.22468 2:0.3 3:0.5 4:0.09 
0 32768 0 1:0.342675 2:0 3:0.5 4:0.03 
0 11635.79603228361 0 1:0.343412 2:0 3:0.5 4:0.03 
0 32768 0 1:0.374385 2:0 3:0.5 4:0.08 
0 32768 0 1:0.375123 2:0 3:0.5 4:0.09 
0 32768 0 1:0.420354 2:0 3:0.5 4:0.04 
0 32768 0 1:0.43412 2:0 3:0.5 4:0.67 
0 32768 0 1:0.438299 2:0 3:0.5 4:0.89 
0 32768 0 1:0.442478 2:0 3:0.5 4:0.43 
0 32768 0 1:0.446657 2:0 3:0.5 4:0.56 
0 32768 0 1:0.450836 2:0 3:0.5 4:0.38 
0 32768 0 1:0.455015 2:0 3:0.5 4:0.8 
0 32768 0 1:0.459194 2:0 3:0.5 4:0.73 
0 32768 0 1:0.463373 2:0 3:0.5 4:0.52 
0 32768 0 1:0.471731 2:0 3:0.5 4:0.68 
0 32768 0 1:0.47591 2:0 3:0.5 4:0.74 
0 32768 0 1:0.480088 2:0 3:0.5 4:0.67 
0 32768 0 1:0.484267 2:0 3:0.5 4:0.41 
0 32768 0 1:0.488446 2:0 3:0.5 4:0.44 
0 32768 0 1:0.492625 2:0 3:0.5 4:0.61 
0 32768 0 1:0.496804 2:0 3:0.5 4:0.42 
0 32768 0 1:0.500983 2:0 3:0.5 4:0.51 
0 32768 0 1:0.505162 2:0 3:0.5 4:0.76 
0 32768 0 1:0.509341 2:0 3:0.5 4:0.61 
0 32768 0 1:0.51352 2:0 3:0.5 4:0.67 
0 1908.788030403045 0 1:0.544494 2:0.3 3:0 4:0.15 
0 32768 0 1:0.56588 2:0 3:0.5 4:0.08 
0 32768 0 1:0.566618 2:0 3:0.5 4:0.09 
0 349.3385265133816 0 1:0.583825 2:0.7 3:0.5 4:0.42 
70.27603986399674 0 0 1:0.646264 2:0.9 3:1 4:0.23 
34.5071696574494 0 0 1:0.667896 2:0.9 3:1 4:0.18 
0 12288.71289432267 0 1:0.205505 2:0.3 3:0.5 4:0.04 
0 32768 0 1:0.298471 2:0 3:0.5 4:0.11 
0 32768 0 1:0.300306 2:0 3:0.5 4:0.08 
0 32768 0 1:0.302141 2:0 3:0.5 4:0.09 
0 32768 0 1:0.357187 2:0 3:0.5 4:0.19 
0 32768 0 1:0.365749 2:0 3:0.5 4:0.19 
0 32768 0 1:0.367584 2:0 3:0.5 4:0.22 
0 32768 0 1:0.376758 2:0 3:0.5 4:0.19 
0 32768 0 1:0.378593 2:0 3:0.5 4:0.26 
0 32768 0 1:0.387768 2:0 3:0.5 4:0.19 
0 32768 0 1:0.403058 2:0 3:0.5 4:0.19 
0 32768 0 1:0.411621 2:0 3:0.5 4:0.19 
0 32768 0 1:0.42263 2:0 3:0.5 4:0.19 
0 32768 0 1:0.433639 2:0 3:0.5 4:0.19 
0 32768 0 1:0.479511 2:0 3:0.5 4:0.19 
0 32768 0 1:0.500917 2:0 3:0.5 4:0.19 
0 32768 0 1:0.502752 2:0 3:0.5 4:0.19 
0 32768 0 1:0.522324 2:0 3:0.5 4:0.19 
1392.986434928524 0 0 1:0.582875 2:0 3:0.5 4:0.19 
0 32768 0 1:0.584709 2:0 3:0.5 4:1 
0 353.3531331150755 0 1:0.207285 2:0.3 3:0.5 4:0.02 
0 32768 0 1:0.325828 2:0 3:0.5 4:0.11 
0 32768 0 1:0.330464 2:0 3:0.5 4:0.11 
0 32768 0 1:0.358278 2:0 3:0.5 4:0.11 
0 32768 0 1:0.359603 2:0 3:0.5 4:0.08 
0 32768 0 1:0.360927 2:0 3:0.5 4:0.09 
0 13950.75511921097 0 1:0.186916 2:0.3 3:0.5 4:0.06 
0 1991.346597639236 0 1:0.29506 2:0.3 3:0.5 4:0.75 
0 3632.075999032151 0 1:0.438585 2:0.3 3:0.5 4:0.08 
0 32768 0 1:0.893191 2:0 3:0.5 4:0.14 
0 2289.178256143562 0 1:0.259925 2:0.7 3:0.5 4:0.48 
0 853.743221284005 0 1:0.298876 2:0.3 3:0.1 4:0.03 
0 1799.06739358968 0 1:0.653184 2:0.5 3:0.5 4:0.33 
0 32768 0 1:0.88015 2:0 3:0.5 4:0.14 
0 17246.07715643523 0 1:0.743439 2:0 3:0.5 4:0.4 
0 32768 0 1:0.25508 2:0 3:0.5 4:0.04 
0 32768 30090.10498908621 1:0.257219 2:0 3:0.5 4:0.04 
0 84.27914573013496 0 1:0.549198 2:0.5 3:0.5 4:0.11 
0 28882.94721309641 0 1:0.214499 2:0.7 3:0.5 4:0.33 
0 0.2270221666297807 0 1:0.272095 2:0.7 3:0.5 4:0.85 
0 10782.72235640484 0 1:0.406157 2:0 3:0.5 4:0.2 
0 32768 0 1:0.408143 2:0 3:0.5 4:0.31 
0 32768 0 1:0.437934 2:0 3:0.5 4:0.98 
32768 0 0 1:0.020854 2:0.8 3:0.5 4:0.09 
0 7258.389023131188 0 1:0.214499 2:0.7 3:0.5 4:0.33 
32664.17246502962 0 0 1:0.264151 2:1 3:0.5 4:0.09 
0 39.94564061041292 0 1:0.272095 2:0.7 3:0.5 4:0.85 
0 32768 0 1:0.285998 2:0 3:0.5 4:0.3 
0 32768 0 1:0.287984 2:0 3:0.5 4:1 
0 32768 0 1:0.28997 2:0 3:0.5 4:1 
0 32768 0 1:0.291956 2:0 3:0.5 4:1 
0 32768 0 1:0.293942 2:0 3:0.5 4:1 
0 32768 0 1:0.295929 2:0 3:0.5 4:1 
0 32768 0 1:0.337637 2:0 3:0.5 4:0.3 
0 32768 0 1:0.339623 2:0 3:0.5 4:1 
0 32768 0 1:0.341609 2:0 3:0.5 4:1 
0 32768 0 1:0.343595 2:0 3:0.5 4:1 
0 32768 0 1:0.345581 2:0 3:0.5 4:1 
0 32768 0 1:0.347567 2:0 3:0.5 4:1 
0 5347.624170486487 0 1:0.406157 2:0 3:0.5 4:0.2 
0 32768 0 1:0.408143 2:0 3:0.5 4:0.31 
0 32768 0 1:0.437934 2:0 3:0.5 4:0.98 
0 32768 0 1:0.263957 2:0 3:0.5 4:0.13 
0 32768 0 1:0.780099 2:0 3:0.5 4:0.59 
0 32768 0 1:0.800608 2:0 3:0.5 4:0.57 
0 32768 0 1:0.865553 2:0 3:0.5 4:0.14 
0 32768 0 1:0.875807 2:0 3:0.5 4:0.13 
0 1402.203498559332 0 1:0.341624 2:0.2 3:0.2 4:0.19 
0 19348.5082453528 0 1:0.375274 2:0.3 3:0 4:0.15 
0 32768 0 1:0.470373 2:0 3:0.5 4:0.06 
0 32768 0 1:0.433922 2:0 3:0.5 4:0.06 
0 32768 0 1:0.253633 2:0 3:0.5 4:0.06 
0 32768 0 1:0.724567 2:0 3:0.5 4:0.59 
0 32768 0 1:0.249913 2:0 3:0.5 4:0.1 
0 32768 0 1:0.722395 2:0 3:0.5 4:0.59 
0 32768 0 1:0.741087 2:0 3:0.5 4:0.57 
0 32768 0 1:0.863274 2:0 3:0.5 4:0.09 
0 32768 0 1:0.866736 2:0 3:0.5 4:0.1 
0 32768 0 1:0.869231 2:0 3:0.5 4:1 
4670.57141498324 0 0 1:0.646983 2:0.9 3:0.5 4:0.11 
0 0.007124338079293136 0 1:0.657253 2:0.5 3:0.5 4:0.45 
0 12576.48573535213 0 1:0.98973 2:0 3:0.5 4:1 
0 14973.28015487279 0 1:0.137255 2:0.5 3:0.5 4:0.08 
0 32768 0 1:0.294118 2:0 3:0.5 4:0.46 
0 417.2543358664167 0 1:0.273585 2:0.2 3:0.5 4:0.13 
0 1000.650175898702 0 1:0.484906 2:0.2 3:0.5 4:0.11 
0 1744.97343983903 0 1:0.507547 2:0.2 3:0.5 4:0.11 
737.4526811115453 0 0 1:0.743396 2:0.2 3:0.5 4:0.16 
0 32768 0 1:0.225602 2:0 3:0.5 4:0.1 
0 0 6200.995463914915 1:0.277567 2:0 3:0.5 4:0.01 
0 23221.44699033909 0 1:0.980989 2:0 3:0.5 4:0.14 
32205.45290832457 0 0 1:0.019964 2:0.8 3:0.5 4:0.23 
0 32768 0 1:0.196216 2:0 3:0.5 4:0.23 
0 32768 0 1:0.206499 2:0 3:0.5 4:0.17 
0 26185.91590005771 0 1:0.220485 2:0.3 3:0.5 4:0.02 
0 32768 0 1:0.270259 2:0 3:0.5 4:0.09 
0 32768 0 1:0.272316 2:0 3:0.5 4:0.07 
0 32768 0 1:0.285479 2:0 3:0.5 4:0.17 
0 32768 0 1:0.518305 2:0 3:0.5 4:0.04 
0 32768 0 1:0.528178 2:0 3:0.5 4:0.17 
0 32768 0 1:0.538873 2:0 3:0.5 4:0.18 
0 32768 0 1:0.551213 2:0 3:0.5 4:0.18 
0 32768 0 1:0.63225 2:0 3:0.5 4:0.08 
32768 0 0 1:0.012605 2:0.8 3:0.5 4:0.2 
0 20305.70735108847 0 1:0.109244 2:0.5 3:0.5 4:0.06 
0 11229.86522929234 0 1:0.117647 2:0.5 3:0.5 4:0.09 
0 32768 0 1:0.134454 2:0.5 3:0.5 4:0.09 
0 32768 0 1:0.686975 2:0 3:0.5 4:1 
0 30858.57848808457 0 1:0.813025 2:0 3:0.5 4:0.01 
0 32768 0 1:0.82563 2:0 3:0.5 4:0.01 
0 28621.3385319572 0 1:0.991597 2:0 3:0.5 4:0.16 
0 1188.983762535406 0 1:0.245302 2:0.7 3:0.5 4:0.23 
0 32768 0 1:0.315529 2:0 3:0.5 4:1 
0 32768 0 1:0.342235 2:0 3:0.5 4:0.19 
0 32768 0 1:0.347181 2:0 3:0.5 4:0.08 
0 32768 0 1:0.604352 2:0 3:0.5 4:0.08 
1038.486802129917 32768 0 1:0.610287 2:0 3:0.5 4:0.15 
17301.9402372383 0 0 1:0.616222 2:0 3:0.5 4:0.18 
0 32768 0 1:0.619189 2:0 3:0.5 4:0.13 
0 32768 0 1:0.643917 2:0 3:0.5 4:0.33 
0 32768 0 1:0.659743 2:0 3:0.5 4:0.3 
346.3920199008205 0 0 1:0.854797 2:0.2 3:0.5 4:0.08 
0 15317.09357797637 0 1:0.893691 2:0 3:0.5 4:0.04 
0 3342.903537876853 0 1:0.961106 2:0 3:0.5 4:0.01 
0.935857728378936 0 0 1:0.98185 2:0.2 3:0.5 4:0.22 
0 12985.72798732659 0 1:0.077165 2:0.5 3:0.5 4:0.07 
0 32768 0 1:0.340157 2:0 3:0.5 4:0.21 
0 32768 0 1:0.354331 2:0 3:0.5 4:0.28 
0 32768 0 1:0.368504 2:0 3:0.5 4:0.24 
0 32768 0 1:0.382677 2:0 3:0.5 4:0.3 
0 32768 0 1:0.540157 2:0 3:0.5 4:0.16 
0 32768 0 1:0.683465 2:0 3:0.5 4:0.31 
-26.98407303992104 0 0 1:0.507463 2:1 3:1 4:0.26 
-32768 0 0 1:0.012295 2:0.8 3:0.5 4:0.18 
-48.37096843512602 0 0 1:0.733607 2:1 3:1 4:0.18 
-130.945180993571 0 0 1:0.406389 2:1 3:0.5 4:0.23 
-32768 0 0 1:0.081081 2:0.5 3:0.5 4:0.16 
-5.776113108308878 0 0 1:0.140351 2:0.7 3:0.9 4:0.29 
-16.05527934140815 0 0 1:0.200188 2:1 3:1 4:0.67 
-32489.97722513206 0 0 1:0.020854 2:0.8 3:0.5 4:0.09 
-32768 0 0 1:0.264151 2:1 3:0.5 4:0.09 
-5.349897850416268 0 0 1:0.154725 2:1 3:1 4:0.19 
-4.793016391310332 0 0 1:0.378691 2:1 3:0.5 4:0.15 
-16959.07093254519 0 0 1:0.04902 2:0.8 3:0.5 4:0.2 
-32768 0.007770335470256781 0 1:0.581699 2:0.5 3:0.5 4:0.2 
-545.0890552448417 0 0 1:0.584967 2:0.15 3:0.5 4:0.2 
-4185.522913514896 0 0 1:0.80566 2:0.2 3:0.5 4:0.12 
-26547.25037175027 0 0 1:0.015209 2:0.8 3:0.5 4:0.5 
-10.12108355485572 32768 0 1:0.219265 2:0 3:0.5 4:0.5 
-32768 0 0 1:0.619748 2:0.9 3:0.5 4:0.13 
-1557.077511856384 0 0 1:0.233432 2:0.3 3:0.5 4:0.28 
-32768 0 0 1:0.012965 2:0.8 3:0.5 4:0.27 
-33.87119581600653 0 0 1:0.675022 2:0.7 3:1 4:0.27 
-355.6441102167058 0 0 1:0.675886 2:0.15 3:0.5 4:0.27 
-32768 0 0 1:0.611296 2:0 3:0.5 4:0.18 
-9.715873141851421 0 0 1:0.507463 2:1 3:1 4:0.26 
-32768 0 0 1:0.012295 2:0.8 3:0.5 4:0.18 
-37.86239766123042 14.13007498008718 0.08284814674799178 1:0.733607 2:1 3:1 4:0.18 
-18.85276782463798 0.5075352818969894 0 1:0.406389 2:1 3:0.5 4:0.23 
-32768 3.791470838361864 0 1:0.081081 2:0.5 3:0.5 4:0.16 
-19.56680036571044 9.379815822081614 0.0125559903590827 1:0.140351 2:0.7 3:0.9 4:0.29 
-16.86430151578179 18.39443065259229 0.1159805016852178 1:0.200188 2:1 3:1 4:0.67 
-32657.07142115892 16.38645237339117 0.02985477975759806 1:0.020854 2:0.8 3:0.5 4:0.09 
-32768 0 0 1:0.264151 2:1 3:0.5 4:0.09 
-7.024776815609236 12.43675759008514 0.09241729887321151 1:0.154725 2:1 3:1 4:0.19 
-90.78450231643932 0 0 1:0.378691 2:1 3:0.5 4:0.15 
-100.4736189568706 0 0 1:0.04902 2:0.8 3:0.5 4:0.2 
-32768 28.8335855338681 0 1:0.581699 2:0.5 3:0.5 4:0.2 
-686.7580333702648 70.99139436749871 0 1:0.80566 2:0.2 3:0.5 4:0.12 
-26715.80829687785 17.92247539867348 0.06101833176747366 1:0.015209 2:0.8 3:0.5 4:0.5 
-32.76762014716405 32768 0.2470774447341727 1:0.219265 2:0 3:0.5 4:0.5 
-0 0 0.02495296530016752 1:0.123412 2:1 3:0.5 4:0.12 
-0 8.974603443987707 0.04941006981061522 1:0.194159 2:1 3:0.4 4:0.18 
-0 15.86801270122987 0.09857497072586262 1:0.613445 2:1 3:0.5 4:0.09 
-32768 0 0.007254938354245235 1:0.619748 2:0.9 3:0.5 4:0.13 
-415.4157887338829 103.4876183608352 0.6539808642597504 1:0.233432 2:0.3 3:0.5 4:0.28 
-32768 0 0 1:0.012965 2:0.8 3:0.5 4:0.27 
-34.29764212967053 12.5450962923652 0.08293832949334357 1:0.675022 2:0.7 3:1 4:0.27 
-180.171520672722 0 0 1:0.675886 2:0.15 3:0.5 4:0.27 
-32768 1312.112224512892 0.8239437215918699 1:0.611296 2:0 3:0.5 4:0.18 
-32768 -0 0 1:0.245399 2:0 3:0.5 4:0.06 
-32768 -0.01086316654134988 0 1:0.552239 2:0.3 3:0.5 4:0.11 
-32768 -0 0 1:0.820896 2:0 3:0.5 4:0.45 
-16820.09683372998 -0 0 1:0.850746 2:0 3:0.5 4:0.51 
-7.692736199771824 -0 0 1:0.199158 2:0 3:0.2 4:1 
-71.56171536920316 -0 0 1:0.255259 2:0 3:0.2 4:0.23 
-5146.851962577476 -0 0 1:0.251689 2:0 3:0.5 4:0.45 
-4876.669935071563 -0 0 1:0.271959 2:0 3:0.5 4:0.5 
-31973.40202225155 -0 0 1:0.290541 2:0 3:0.5 4:0.18 
-32768 -0 0 1:0.310811 2:0 3:0.5 4:0.17 
-32768 -0 0 1:0.319257 2:0 3:0.5 4:1 
-1191.387378390527 -0 0 1:0.351351 2:0.3 3:0 4:0.09 
-7.762438583939113 -0 0 1:0.448737 2:0 3:1 4:0.27 
-32768 -0 0 1:0.44948 2:0 3:0.5 4:0.27 
-32768 -0 0 1:0.450966 2:0 3:0.5 4:0.38 
-32768 -0 0 1:0.451709 2:0 3:0.5 4:0.55 
-8420.860111203539 -0 0 1:0.459881 2:0.3 3:0 4:0.15 
-32768 -0 0 1:0.096525 2:0.5 3:0.5 4:0.09 
-32768 -0 0 1:0.131274 2:0.5 3:0.5 4:0.07 
-32768 -0.00613547429560235 0 1:0.220833 2:0.5 3:0.5 4:0.23 
-1611.797425826575 -0 0 1:0.330579 2:0.2 3:0.2 4:0.1 
-32768 -0 0 1:0.33719 2:0 3:0.5 4:0.21 
-20824.82987038393 -0 0 1:0.370248 2:0.3 3:0 4:0.16 
-25952.30414505308 -0 0 1:0.308434 2:0 3:0.5 4:0.47 
-32768 -0 0 1:0.327711 2:0 3:0.5 4:0.1 
-32768 -0 0 1:0.33253 2:0 3:0.5 4:0.28 
-32768 -0 0 1:0.337349 2:0 3:0.5 4:1 
-32768 -0 0 1:0.339759 2:0 3:0.5 4:1 
-32768 -0 0 1:0.344578 2:0 3:0.5 4:0.29 
-32768 -0 0 1:0.346988 2:0 3:0.5 4:0.11 
-32768 -0 0 1:0.366265 2:0 3:0.5 4:0.04 
-32768 -0 0 1:0.371084 2:0 3:0.5 4:0.05 
-32768 -0 0 1:0.375904 2:0 3:0.5 4:0.11 
-32768 -0 0 1:0.383133 2:0 3:0.5 4:0.1 
-32768 -0 0 1:0.387952 2:0 3:0.5 4:0.17 
-32768 -0 0 1:0.39759 2:0 3:0.5 4:0.15 
-32768 -0 0 1:0.407229 2:0 3:0.5 4:0.12 
-32768 -0 0 1:0.412048 2:0 3:0.5 4:0.5 
-32768 -0 0 1:0.416867 2:0 3:0.5 4:0.15 
-32768 -0 0 1:0.421687 2:0 3:0.5 4:0.43 
-32768 -0 0 1:0.426506 2:0 3:0.5 4:0.13 
-32768 -0 0 1:0.431325 2:0 3:0.5 4:0.15 
-32768 -0 0 1:0.440964 2:0 3:0.5 4:0.13 
-32768 -0 0 1:0.450602 2:0 3:0.5 4:0.12 
-31009.93710655098 -0 0 1:0.455422 2:0 3:0.5 4:0.69 
-4931.645102798452 -0 0 1:0.460241 2:0 3:0.5 4:0.12 
-32768 -0 0 1:0.474699 2:0 3:0.5 4:0.19 
-32768 -0 0 1:0.479518 2:0 3:0.5 4:0.63 
-32768 -0 0 1:0.503614 2:0 3:0.5 4:0.17 
-32768 -0 0 1:0.508434 2:0 3:0.5 4:0.27 
-32768 -0 0 1:0.513253 2:0 3:0.5 4:0.04 
-32768 -0 0 1:0.518072 2:0 3:0.5 4:0.13 
-32768 -0 0 1:0.522892 2:0 3:0.5 4:0.21 
-32768 -0 0 1:0.539759 2:0 3:0.5 4:0.19 
-32768 -0 0 1:0.542169 2:0 3:0.5 4:0.06 
-6.919489979792476 -0 0 1:0.166667 2:0 3:0.2 4:0.04 
-1485.643322621009 -0 0 1:0.178363 2:0 3:0.5 4:1 
-130.9015158678708 -0 0 1:0.184211 2:0 3:0.5 4:0.32 
-32768 -0 0 1:0.190058 2:0 3:0.5 4:0.05 
-32768 -0 0 1:0.342282 2:0 3:0.5 4:0.21 
-32768 -0 0 1:0.369128 2:0 3:0.5 4:0.29 
-32768 -0 0 1:0.395973 2:0 3:0.5 4:0.25 
-32768 -0 0 1:0.436242 2:0 3:0.5 4:0.75 
-8287.433583361049 -0 0 1:0.53979 2:0 3:0.5 4:1 
-29226.28968350205 -0 0 1:0.538776 2:0 3:0.5 4:0.39 
-32768 -0 0 1:0.55102 2:0 3:0.5 4:0.11 
-739.8688000052296 -0 0 1:0.657143 2:0.3 3:0 4:0.17 
-32768 -0 0 1:0.218088 2:0.3 3:0.5 4:0.13 
-32768 -0 0 1:0.224211 2:0 3:0.5 4:0.04 
-0 -0.1380771105847154 0 1:0.229863 2:0 3:0.5 4:0.48 
-32768 -0 0 1:0.231276 2:0 3:0.5 4:0.05 
-809.475112349012 -0 0 1:0.469846 2:0.7 3:0.5 4:0.51 
-7306.665844389821 -0 0 1:0.486676 2:0.15 3:0.5 4:0.1 
-2488.65020366217 -0 0 1:0.489481 2:0.15 3:0.5 4:0.16 
-32418.51036252674 -0 0 1:0.493689 2:0 3:0.5 4:0.07 
-32768 -0 0 1:0.497896 2:0 3:0.5 4:1 
-32768 -0 0 1:0.506311 2:0 3:0.5 4:0.65 
-32768 -0 0 1:0.510519 2:0 3:0.5 4:0.27 
-32768 -0 0 1:0.514727 2:0 3:0.5 4:0.2 
-32768 -0 0 1:0.523142 2:0 3:0.5 4:0.71 
-32768 -0 0 1:0.527349 2:0 3:0.5 4:0.08 
-32768 -0 0 1:0.542777 2:0 3:0.5 4:0.34 
-32768 -0 0 1:0.546985 2:0 3:0.5 4:0.2 
-32768 -0 0 1:0.58906 2:0 3:0.5 4:0.1 
-32768 -0 0 1:0.600281 2:0 3:0.5 4:0.16 
-32768 -0.2325360334997662 0 1:0.638149 2:0 3:0.5 4:0.1 
-32768 -0 0 1:0.645161 2:0 3:0.5 4:0.29 
-32768 -0 0 1:0.649369 2:0 3:0.5 4:0.32 
-1527.515935613947 -0 0 1:0.653576 2:0 3:0.5 4:0.51 
-8527.000282377816 -0 0 1:0.657784 2:0 3:0.5 4:0.46 
-32768 -0 0 1:0.661992 2:0 3:0.5 4:0.34 
-32768 -0 0 1:0.666199 2:0 3:0.5 4:0.56 
-32768 -0 0 1:0.670407 2:0 3:0.5 4:0.02 
-13101.81236662864 -0 0 1:0.674614 2:0 3:0.5 4:0.72 
-32768 -0 0 1:0.683029 2:0 3:0.5 4:0.61 
-32006.83587073801 -0 0 1:0.237856 2:0 3:0.5 4:0.1 
-32768 -0 0 1:0.241206 2:0 3:0.5 4:0.07 
-3891.954293597795 -0 0 1:0.25349 2:0.3 3:0.5 4:0.75 
-32768 -0 53.58250084817561 1:0.255165 2:0 3:0.5 4:0.08 
-115.7692961978093 -0 0 1:0.278615 2:0.3 3:0.5 4:0.93 
-32768 -0 0 1:0.28029 2:0 3:0.5 4:0.1 
-32768 -0 0 1:0.284757 2:0 3:0.5 4:0.16 
-32768 -0 0 1:0.296482 2:0 3:0.5 4:1 
-32768 -0 0 1:0.299832 2:0 3:0.5 4:0.1 
-998.3559174650059 -0 0 1:0.313791 2:0 3:0.5 4:1 
-32768 -0 0 1:0.318816 2:0 3:0.5 4:0.07 
-21.72242480364725 -0 0 1:0.320491 2:0 3:0 4:0.08 
-32768 -0 0 1:0.21455 2:0.7 3:0.5 4:0.46 
-32768 -0 0 1:0.221332 2:0 3:0.5 4:0.08 
-32768 -0 0 1:0.22688 2:0 3:0.5 4:0.02 
-32768 -0 0 1:0.236128 2:0 3:0.5 4:0.06 
-32768 -0 0 1:0.241677 2:0 3:0.5 4:0.04 
-32768 -0 0 1:0.243527 2:0 3:0.5 4:0.08 
-32768 -0 0 1:0.247226 2:0 3:0.5 4:0.04 
-32768 -0 3434.868536255178 1:0.262022 2:0 3:0.5 4:0.03 
-32768 -0 103.8046977656583 1:0.293465 2:0 3:0.5 4:0.05 
-32768 -0 0 1:0.296547 2:0 3:0.5 4:0.1 
-32768 -0 0 1:0.31566 2:0 3:0.5 4:0.02 
-32768 -0 0 1:0.318742 2:0 3:0.5 4:0.08 
-9736.272189586891 -0 0 1:0.324908 2:0 3:0.5 4:0.97 
-31209.74286200728 -0 0 1:0.328607 2:0 3:0.5 4:0.29 
-32768 -0 0 1:0.380039 2:0 3:0.5 4:0.13 
-32768 -0 0 1:0.381514 2:0 3:0.5 4:0.19 
-32768 -0 0 1:0.382252 2:0 3:0.5 4:0.07 
-32768 -0 0 1:0.387168 2:0 3:0.5 4:0.31 
-32768 -0 0 1:0.387906 2:0 3:0.5 4:0.16 
-11.55348961349428 -0 0 1:0.269113 2:0.7 3:0 4:0.15 
-32768 -0 0 1:0.274172 2:0 3:0.5 4:0.13 
-32768 -0 0.06395288574261065 1:0.284768 2:0 3:0.5 4:0.03 
-26952.14505688326 -0 0 1:0.288742 2:0 3:0.5 4:1 
-4.257509399047468 -0 0 1:0.468212 2:0.7 3:0 4:0.14 
-13602.85996666169 -0 0 1:0.211985 2:0.3 3:0.1 4:0.06 
-1885.074205546557 -0 0 1:0.313109 2:0.3 3:0 4:0.1 
-684.0412001608919 -0.002276510980833293 0 1:0.241176 2:0.3 3:0.5 4:0.54 
-32768 -0 0 1:0.28997 2:0 3:0.5 4:1 
-32768 -0 0 1:0.337637 2:0 3:0.5 4:0.3 
-32768 -0 0 1:0.341609 2:0 3:0.5 4:1 
-32768 -0 0 1:0.347567 2:0 3:0.5 4:1 
-32768 -0 0 1:0.254463 2:0 3:0.5 4:1 
-32768 -0 0 1:0.208486 2:0.7 3:0.5 4:0.31 
-32768 -0 0 1:0.297732 2:0 3:0.5 4:0.01 
-32768 -0 0 1:0.311631 2:0 3:0.5 4:1 
-32768 -0 0 1:0.308834 2:0 3:0.5 4:0.04 
-30206.31494103259 -0 0 1:0.342049 2:0.3 3:0 4:0.16 
-32768 -0 0 1:0.24126 2:0.3 3:0.5 4:0.04 
-32768 -0 0 1:0.7 2:0 3:0.5 4:0.51 
-32768 -0 0 1:0.823077 2:0 3:0.5 4:0.37 
-32768 -0 0 1:1 2:0 3:0.5 4:0.15 
-32768 -0 0 1:0.417202 2:0 3:0.5 4:0.34 
-32768 -0 0 1:0.427471 2:0 3:0.5 4:1 
-7205.858932971463 -0 0 1:0.430039 2:0 3:0.5 4:0.49 
-15225.69682321059 -0 0 1:0.435173 2:0 3:0.5 4:0.92 
-32768 -0 0 1:0.442875 2:0 3:0.5 4:0.06 
-32768 -0 0 1:0.446727 2:0 3:0.5 4:0.14 
-32768 -0 0 1:0.450578 2:0 3:0.5 4:0.72 
-32768 -0 0 1:0.455712 2:0 3:0.5 4:0.89 
-9285.811804833433 -0 0 1:0.45828 2:0 3:0.5 4:0.62 
-32768 -0 0 1:0.463415 2:0 3:0.5 4:0.67 
-32768 -0 0 1:0.465982 2:0 3:0.5 4:0.04 
-32768 -0 0 1:0.468549 2:0 3:0.5 4:0.06 
-32768 -0 0 1:0.472401 2:0 3:0.5 4:0.17 
-32768 -0 0 1:0.478819 2:0 3:0.5 4:0.15 
-32768 -0 0 1:0.48267 2:0 3:0.5 4:0.41 
-32768 -0 0 1:0.485237 2:0 3:0.5 4:0.56 
-32768 -0 0 1:0.49294 2:0 3:0.5 4:0.85 
-32768 -0 0 1:0.495507 2:0 3:0.5 4:0.68 
-32768 -0 0 1:0.500642 2:0 3:0.5 4:0.14 
-32768 -0 0 1:0.504493 2:0 3:0.5 4:0.4 
-4883.828604834683 -0 0 1:0.509628 2:0 3:0.5 4:0.84 
-32144.99315268952 -0 0 1:0.514763 2:0 3:0.5 4:0.67 
-32768 -0 0 1:0.521181 2:0 3:0.5 4:0.06 
-11352.79902289886 -0 0 1:0.656863 2:0.5 3:0.5 4:0.39 
-5609.699335093754 -0 0 1:0.705882 2:0 3:0.5 4:1 
-32768 -0 0 1:0.745098 2:0 3:0.5 4:0.73 
-32768 -0 0 1:0.784314 2:0 3:0.5 4:0.51 
-32768 -0 0 1:0.823529 2:0 3:0.5 4:0.6 
-32768 -0 0 1:0.843396 2:0 3:0.5 4:0.1 
-32768 -0 0 1:0.850943 2:0 3:0.5 4:0.02 
-32768 -0 0 1:0.854717 2:0 3:0.5 4:0.1 
-32768 -0 0 1:0.866038 2:0 3:0.5 4:0.02 
-32768 -0 0 1:0.869811 2:0 3:0.5 4:0.1 
-32768 -0 0 1:0.884906 2:0 3:0.5 4:0.05 
-32768 -0 0 1:0.888679 2:0 3:0.5 4:0.11 
-32768 -0 0 1:0.892453 2:0 3:0.5 4:0.3 
-32768 -0 0 1:0.907547 2:0 3:0.5 4:0.13 
-32768 -0 0 1:0.918868 2:0 3:0.5 4:0.16 
-21291.00580869216 -0 0 1:0.926415 2:0 3:0.5 4:0.51 
-32768 -0 0 1:0.930189 2:0 3:0.5 4:0.04 
-24310.53498076291 -0 0 1:0.941509 2:0 3:0.5 4:1 
-0 -1135.732719974753 0 1:0.232305 2:0 3:0.5 4:0.49 
-32768 -0 0 1:0.297641 2:0 3:0.5 4:0.18 
-32768 -0 0 1:0.315789 2:0 3:0.5 4:1 
-32768 -0 0 1:0.321234 2:0 3:0.5 4:0.2 
-32768 -0 0 1:0.353902 2:0 3:0.5 4:0.19 
-32768 -0 0 1:0.361162 2:0 3:0.5 4:0.2 
-24234.94247191286 -0 0 1:0.388385 2:0 3:0.5 4:0.99 
-32768 -0 0 1:0.399274 2:0 3:0.5 4:0.26 
-0.7724595450872614 -0 0 1:0.232415 2:0 3:0.4 4:0 
-2.719125136156972 -0 0 1:0.233237 2:0 3:0.4 4:0.38 
-489.3859356424027 -0.001355474715002396 0 1:0.655462 2:0.3 3:0.5 4:0.36 
-32768 -0 0 1:0.298714 2:0 3:0.5 4:0.15 
-32768 -0 0 1:0.301682 2:0 3:0.5 4:0.02 
-32768 -0 0 1:0.304649 2:0 3:0.5 4:0.16 
-32768 -0 0 1:0.312562 2:0 3:0.5 4:1 
-32768 -0 0 1:0.735523 2:0 3:0.5 4:1 
-17848.45681002305 -0 0 1:0.745895 2:0 3:0.5 4:0.92 
-32768 -0 0 1:0.748487 2:0 3:0.5 4:0.17 
-96.9599940237285 -0.004973916779209569 0 1:0.755402 2:0.7 3:0.5 4:0.24 
-2507.59853250541 -0 0 1:0.807309 2:0 3:0.5 4:0.9 
-32563.2281325923 -0 0 1:0.166929 2:0 3:0.5 4:0.19 
-32768 -0 0 1:0.181102 2:0.3 3:0.5 4:0.04 
-0 -0.07319106661151453 0 1:0.198425 2:0 3:0.5 4:0.52 
-32768 -0 5189.651492204026 1:0.245399 2:0 3:0.5 4:0.06 
-32768 -46.3746090537788 0 1:0.552239 2:0.3 3:0.5 4:0.11 
-32768 -0 0 1:0.820896 2:0 3:0.5 4:0.45 
-32768 -0 0 1:0.850746 2:0 3:0.5 4:0.51 
-7427.072188660191 -0 0 1:0.741803 2:0 3:0.5 4:0.89 
-1.439235015663899 -0 0 1:0.199158 2:0 3:0.2 4:1 
-18692.11510941545 -0 0 1:0.251689 2:0 3:0.5 4:0.45 
-17970.56669755284 -0 0 1:0.271959 2:0 3:0.5 4:0.5 
-8871.965590002726 -0 0 1:0.290541 2:0 3:0.5 4:0.18 
-32768 -0 0 1:0.310811 2:0 3:0.5 4:0.17 
-32768 -0 0 1:0.319257 2:0 3:0.5 4:1 
-14239.48126888768 -0 0 1:0.351351 2:0.3 3:0 4:0.09 
-5.324970508383209 -0 0 1:0.448737 2:0 3:1 4:0.27 
-32768 -0 0 1:0.44948 2:0 3:0.5 4:0.27 
-32768 -0 0 1:0.450966 2:0 3:0.5 4:0.38 
-32768 -0 0 1:0.451709 2:0 3:0.5 4:0.55 
-16291.94226535399 -0 0 1:0.459881 2:0.3 3:0 4:0.15 
-32768 -0 0 1:0.096525 2:0.5 3:0.5 4:0.09 
-32768 -0 0 1:0.131274 2:0.5 3:0.5 4:0.07 
-32768 -48.06748911429995 0 1:0.220833 2:0.5 3:0.5 4:0.23 
-92.42081867133842 -0 0 1:0.330579 2:0.2 3:0.2 4:0.1 
-32768 -0 0 1:0.33719 2:0 3:0.5 4:0.21 
-24143.63291136433 -0 0 1:0.370248 2:0.3 3:0 4:0.16 
-13957.47829547354 -0 0 1:0.308434 2:0 3:0.5 4:0.47 
-32768 -0 0 1:0.327711 2:0 3:0.5 4:0.1 
-32768 -0 0 1:0.33253 2:0 3:0.5 4:0.28 
-32768 -0 0 1:0.337349 2:0 3:0.5 4:1 
-32768 -0 0 1:0.339759 2:0 3:0.5 4:1 
-32768 -0 0 1:0.344578 2:0 3:0.5 4:0.29 
-32768 -0 0 1:0.346988 2:0 3:0.5 4:0.11 
-6529.640496454471 -0 0 1:0.361446 2:0 3:0.5 4:1 
-32768 -0 0 1:0.366265 2:0 3:0.5 4:0.04 
-32768 -0 0 1:0.371084 2:0 3:0.5 4:0.05 
-32768 -0 0 1:0.375904 2:0 3:0.5 4:0.11 
-32768 -0 0 1:0.383133 2:0 3:0.5 4:0.1 
-32768 -0 0 1:0.387952 2:0 3:0.5 4:0.17 
-32768 -0 0 1:0.39759 2:0 3:0.5 4:0.15 
-32768 -0 0 1:0.407229 2:0 3:0.5 4:0.12 
-32768 -0 0 1:0.412048 2:0 3:0.5 4:0.5 
-32768 -0 0 1:0.416867 2:0 3:0.5 4:0.15 
-32768 -0 0 1:0.421687 2:0 3:0.5 4:0.43 
-32768 -0 0 1:0.426506 2:0 3:0.5 4:0.13 
-32768 -0 0 1:0.431325 2:0 3:0.5 4:0.15 
-32768 -0 0 1:0.440964 2:0 3:0.5 4:0.13 
-32768 -0 0 1:0.450602 2:0 3:0.5 4:0.12 
-19416.97970576294 -0 0 1:0.455422 2:0 3:0.5 4:0.69 
-12300.96694592812 -0 0 1:0.460241 2:0 3:0.5 4:0.12 
-32768 -0 0 1:0.474699 2:0 3:0.5 4:0.19 
-32768 -0 0 1:0.479518 2:0 3:0.5 4:0.63 
-32768 -0 0 1:0.503614 2:0 3:0.5 4:0.17 
-32768 -0 0 1:0.508434 2:0 3:0.5 4:0.27 
-32768 -0 0 1:0.513253 2:0 3:0.5 4:0.04 
-32768 -0 0 1:0.518072 2:0 3:0.5 4:0.13 
-32768 -0 0 1:0.522892 2:0 3:0.5 4:0.21 
-32768 -0 0 1:0.539759 2:0 3:0.5 4:0.19 
-32768 -0 0 1:0.542169 2:0 3:0.5 4:0.06 
-98.56039254714796 -0 0 1:0.166667 2:0 3:0.2 4:0.04 
-503.9304153220073 -0 0 1:0.178363 2:0 3:0.5 4:1 
-31408.51397760551 -0 0 1:0.184211 2:0 3:0.5 4:0.32 
-32768 -0 0 1:0.190058 2:0 3:0.5 4:0.05 
-32768 -0 0 1:0.342282 2:0 3:0.5 4:0.21 
-32768 -0 0 1:0.369128 2:0 3:0.5 4:0.29 
-32768 -0 0 1:0.395973 2:0 3:0.5 4:0.25 
-32768 -0 0 1:0.436242 2:0 3:0.5 4:0.75 
-32684.20353543689 -0 0 1:0.53979 2:0 3:0.5 4:1 
-20357.05321855342 -0 0 1:0.538776 2:0 3:0.5 4:0.39 
-32768 -0 0 1:0.55102 2:0 3:0.5 4:0.11 
-1499.078712126256 -0 0 1:0.657143 2:0.3 3:0 4:0.17 
-32768 -0 0 1:0.218088 2:0.3 3:0.5 4:0.13 
-32768 -0 0 1:0.224211 2:0 3:0.5 4:0.04 
-0 -8061.869604740387 0 1:0.229863 2:0 3:0.5 4:0.48 
-32768 -0 0 1:0.231276 2:0 3:0.5 4:0.05 
-33.52708720465769 -0 0 1:0.469846 2:0.7 3:0.5 4:0.51 
-213.542741270259 -0 0 1:0.486676 2:0.15 3:0.5 4:0.1 
-589.264312344163 -0 0 1:0.489481 2:0.15 3:0.5 4:0.16 
-21300.92320037935 -0 0 1:0.493689 2:0 3:0.5 4:0.07 
-32768 -0 0 1:0.497896 2:0 3:0.5 4:1 
-32768 -0 0 1:0.506311 2:0 3:0.5 4:0.65 
-32768 -0 0 1:0.510519 2:0 3:0.5 4:0.27 
-32768 -0 0 1:0.514727 2:0 3:0.5 4:0.2 
-32768 -0 0 1:0.523142 2:0 3:0.5 4:0.71 
-32768 -0 0 1:0.527349 2:0 3:0.5 4:0.08 
-32768 -0 0 1:0.542777 2:0 3:0.5 4:0.34 
-32768 -0 0 1:0.546985 2:0 3:0.5 4:0.2 
-32768 -0 0 1:0.58906 2:0 3:0.5 4:0.1 
-32768 -732.4479660065393 0 1:0.600281 2:0 3:0.5 4:0.16 
-32768 -159.173361983206 0 1:0.638149 2:0 3:0.5 4:0.1 
-32768 -0 0 1:0.645161 2:0 3:0.5 4:0.29 
-32768 -0 0 1:0.649369 2:0 3:0.5 4:0.32 
-13355.3266495544 -0 0 1:0.653576 2:0 3:0.5 4:0.51 
-2549.991860414128 -0 0 1:0.657784 2:0 3:0.5 4:0.46 
-32768 -0 0 1:0.661992 2:0 3:0.5 4:0.34 
-32768 -0 0 1:0.666199 2:0 3:0.5 4:0.56 
-32768 -0 0 1:0.670407 2:0 3:0.5 4:0.02 
-15542.82966477504 -0 0 1:0.674614 2:0 3:0.5 4:0.72 
-32768 -0 0 1:0.683029 2:0 3:0.5 4:0.61 
-27598.84527050715 -0 0 1:0.237856 2:0 3:0.5 4:0.1 
-32768 -0 0 1:0.241206 2:0 3:0.5 4:0.07 
-753.0136304200636 -0 0 1:0.25349 2:0.3 3:0.5 4:0.75 
-32768 -0 811.8207758187156 1:0.255165 2:0 3:0.5 4:0.08 
-24.60634579109589 -0 0 1:0.278615 2:0.3 3:0.5 4:0.93 
-32768 -0 0 1:0.28029 2:0 3:0.5 4:0.1 
-32768 -0 0 1:0.284757 2:0 3:0.5 4:0.16 
-32768 -0 0 1:0.296482 2:0 3:0.5 4:1 
-32768 -0 0 1:0.299832 2:0 3:0.5 4:0.1 
-32768 -0 0 1:0.318816 2:0 3:0.5 4:0.07 
-0.4127379239100182 -0 0 1:0.320491 2:0 3:0 4:0.08 
-32768 -0 0 1:0.21455 2:0.7 3:0.5 4:0.46 
-32768 -0 0 1:0.221332 2:0 3:0.5 4:0.08 
-32768 -0 0 1:0.22688 2:0 3:0.5 4:0.02 
-32768 -0 0 1:0.236128 2:0 3:0.5 4:0.06 
-32768 -0 0 1:0.241677 2:0 3:0.5 4:0.04 
-32768 -0 0 1:0.243527 2:0 3:0.5 4:0.08 
-32768 -0 0 1:0.247226 2:0 3:0.5 4:0.04 
-32768 -0 32768 1:0.262022 2:0 3:0.5 4:0.03 
-32768 -0 22548.51347657843 1:0.293465 2:0 3:0.5 4:0.05 
-32768 -0 0 1:0.296547 2:0 3:0.5 4:0.1 
-32768 -0 0 1:0.31566 2:0 3:0.5 4:0.02 
-32768 -0 0 1:0.318742 2:0 3:0.5 4:0.08 
-2277.624785178777 -0 0 1:0.324908 2:0 3:0.5 4:0.97 
-8495.436248190685 -0 0 1:0.328607 2:0 3:0.5 4:0.29 
-32768 -0 0 1:0.380039 2:0 3:0.5 4:0.13 
-32768 -0 0 1:0.381514 2:0 3:0.5 4:0.19 
-32768 -0 0 1:0.382252 2:0 3:0.5 4:0.07 
-32768 -0 0 1:0.387168 2:0 3:0.5 4:0.31 
-32768 -0 0 1:0.387906 2:0 3:0.5 4:0.16 
-32768 -0 0 1:0.274172 2:0 3:0.5 4:0.13 
-32768 -0 625.6945676440548 1:0.284768 2:0 3:0.5 4:0.03 
-29564.22740438888 -0 0 1:0.288742 2:0 3:0.5 4:1 
-11.70349972012151 -0 0 1:0.468212 2:0.7 3:0 4:0.14 
-4041.178647668681 -26.40061256127053 0 1:0.241176 2:0.3 3:0.5 4:0.54 
-32768 -0 0 1:0.28997 2:0 3:0.5 4:1 
-32768 -0 0 1:0.337637 2:0 3:0.5 4:0.3 
-32768 -0 0 1:0.341609 2:0 3:0.5 4:1 
-32768 -0 0 1:0.347567 2:0 3:0.5 4:1 
-32768 -0 0 1:0.254463 2:0 3:0.5 4:1 
-32768 -0 0 1:0.208486 2:0.7 3:0.5 4:0.31 
-32768 -0 0 1:0.297732 2:0 3:0.5 4:0.01 
-32768 -0 0 1:0.311631 2:0 3:0.5 4:1 
-32768 -0 0 1:0.308834 2:0 3:0.5 4:0.04 
-11315.30730481294 -0 0 1:0.342049 2:0.3 3:0 4:0.16 
-32768 -0 0 1:0.24126 2:0.3 3:0.5 4:0.04 
-32768 -0 0 1:0.7 2:0 3:0.5 4:0.51 
-32768 -0 0 1:0.823077 2:0 3:0.5 4:0.37 
-32768 -0 0 1:1 2:0 3:0.5 4:0.15 
-32768 -0 0 1:0.417202 2:0 3:0.5 4:0.34 
-17026.27734979992 -0 0 1:0.427471 2:0 3:0.5 4:1 
-32767.86582001832 -0 0 1:0.430039 2:0 3:0.5 4:0.49 
-1152.149707712759 -0 0 1:0.435173 2:0 3:0.5 4:0.92 
-32768 -0 0 1:0.442875 2:0 3:0.5 4:0.06 
-32768 -0 0 1:0.446727 2:0 3:0.5 4:0.14 
-32768 -0 0 1:0.450578 2:0 3:0.5 4:0.72 
-32768 -0 0 1:0.455712 2:0 3:0.5 4:0.89 
-10483.90802518596 -0 0 1:0.45828 2:0 3:0.5 4:0.62 
-32768 -0 0 1:0.463415 2:0 3:0.5 4:0.67 
-32768 -0 0 1:0.465982 2:0 3:0.5 4:0.04 
-32768 -0 0 1:0.468549 2:0 3:0.5 4:0.06 
-32768 -0 0 1:0.472401 2:0 3:0.5 4:0.17 
-32768 -0 0 1:0.478819 2:0 3:0.5 4:0.15 
-32768 -0 0 1:0.48267 2:0 3:0.5 4:0.41 
-32768 -0 0 1:0.485237 2:0 3:0.5 4:0.56 
-32768 -0 0 1:0.49294 2:0 3:0.5 4:0.85 
-32768 -0 0 1:0.495507 2:0 3:0.5 4:0.68 
-32768 -0 0 1:0.500642 2:0 3:0.5 4:0.14 
-32768 -0 0 1:0.504493 2:0 3:0.5 4:0.4 
-28015.72312902133 -0 0 1:0.509628 2:0 3:0.5 4:0.84 
-25426.5482343565 -0 0 1:0.514763 2:0 3:0.5 4:0.67 
-32768 -0 0 1:0.521181 2:0 3:0.5 4:0.06 
-4096.354762215406 -0 0 1:0.656863 2:0.5 3:0.5 4:0.39 
-28299.36780269764 -0 0 1:0.705882 2:0 3:0.5 4:1 
-32768 -0 0 1:0.745098 2:0 3:0.5 4:0.73 
-32768 -0 0 1:0.784314 2:0 3:0.5 4:0.51 
-32768 -0 0 1:0.823529 2:0 3:0.5 4:0.6 
-32768 -0 0 1:0.843396 2:0 3:0.5 4:0.1 
-32768 -0 0 1:0.850943 2:0 3:0.5 4:0.02 
-32768 -0 0 1:0.854717 2:0 3:0.5 4:0.1 
-32768 -0 0 1:0.866038 2:0 3:0.5 4:0.02 
-32768 -0 0 1:0.869811 2:0 3:0.5 4:0.1 
-32768 -0 0 1:0.884906 2:0 3:0.5 4:0.05 
-32768 -0 0 1:0.888679 2:0 3:0.5 4:0.11 
-32768 -0 0 1:0.892453 2:0 3:0.5 4:0.3 
-32768 -0 0 1:0.907547 2:0 3:0.5 4:0.13 
-32768 -0 0 1:0.918868 2:0 3:0.5 4:0.16 
-22873.30463327867 -0 0 1:0.926415 2:0 3:0.5 4:0.51 
-32768 -0 0 1:0.930189 2:0 3:0.5 4:0.04 
-32748.33830329289 -0 0 1:0.941509 2:0 3:0.5 4:1 
-0 -32563.00669217513 0 1:0.232305 2:0 3:0.5 4:0.49 
-32768 -0 0 1:0.297641 2:0 3:0.5 4:0.18 
-32768 -0 0 1:0.315789 2:0 3:0.5 4:1 
-32768 -0 0 1:0.321234 2:0 3:0.5 4:0.2 
-32768 -0 0 1:0.353902 2:0 3:0.5 4:0.19 
-32768 -0 0 1:0.361162 2:0 3:0.5 4:0.2 
-31185.24212470733 -0 0 1:0.388385 2:0 3:0.5 4:0.99 
-32768 -0 0 1:0.399274 2:0 3:0.5 4:0.26 
-37.4288249742127 -0 0 1:0.232415 2:0 3:0.4 4:0 
-39.86507505594701 -0 0 1:0.233237 2:0 3:0.4 4:0.38 
-367.3749845030803 -13.09900213669102 0 1:0.655462 2:0.3 3:0.5 4:0.36 
-32768 -0 0 1:0.298714 2:0 3:0.5 4:0.15 
-32768 -0 0 1:0.301682 2:0 3:0.5 4:0.02 
-32768 -0 0 1:0.304649 2:0 3:0.5 4:0.16 
-32768 -0 0 1:0.312562 2:0 3:0.5 4:1 
-32768 -0 0 1:0.735523 2:0 3:0.5 4:1 
-892.5945100009316 -0 0 1:0.745895 2:0 3:0.5 4:0.92 
-32768 -306.8263079905822 0 1:0.748487 2:0 3:0.5 4:0.17 
-453.1829374570875 -0.3396321569074929 0 1:0.755402 2:0.7 3:0.5 4:0.24 
-2127.932952644058 -0 0 1:0.807309 2:0 3:0.5 4:0.9 
-22625.83567953216 -0 0 1:0.166929 2:0 3:0.5 4:0.19 
-32768 -0 0 1:0.181102 2:0.3 3:0.5 4:0.04 
-0 -24087.96191183779 0 1:0.198425 2:0 3:0.5 4:0.52 
-32768 -0 -32768 1:0.271696 2:0 3:0.5 4:0.04 
-32768 -2.382808353460602 -32768 1:0.271696 2:0 3:0.5 4:0.04 
