svm_type c_svc
kernel_type rbf
gamma 8
nr_class 2
total_sv 167
rho 0.177522
label 2 1
nr_sv 78 89
SV
32 1:0.11 2:0.316667 3:0 4:0.4 5:0.6 6:0 7:0 
32 1:0.1 2:0.366667 3:0 4:0.4 5:0.6 6:0 7:0 
31.16361647741857 1:0.09 2:0.433333 3:0 4:0.7 5:0.7 6:0 7:0 
32 1:0.09 2:0.433333 3:0 4:0.7 5:0.7 6:0 7:0 
32 1:0.09 2:0.425 3:0 4:0.7 5:0.7 6:0 7:0 
22.52501163844701 1:0.09 2:0.508333 3:0 4:0.7 5:0.7 6:0 7:0 
32 1:0.04 2:0.466667 3:0 4:0.7 5:0.7 6:0 7:0 
32 1:0.11 2:0.433333 3:1 4:0.7 5:0.7 6:0 7:0 
11.80358020674531 1:0.12 2:0.425 3:1 4:0.7 5:0.7 6:0 7:0 
32 1:0.06 2:0.475 3:0 4:0.7 5:0.7 6:0 7:0 
11.38783827534844 1:0.06 2:0.408333 3:1 4:0.7 5:0.7 6:0 7:0 
5.187681506118857 1:0.1 2:0.4 3:1 4:0.7 5:0.7 6:0 7:0 
0.1345796016251909 1:0.12 2:0.366667 3:1 4:0.7 5:0.7 6:0 7:0 
32 1:0.09 2:0.358333 3:0 4:0.7 5:0.7 6:0 7:0 
11.35903118569724 1:0.11 2:0.641667 3:0 4:0.7 5:0.7 6:0 7:0 
4.911784780618316 1:0.09 2:0.366667 3:1 4:0.7 5:0.7 6:0 7:0 
32 1:0.02 2:0.2 3:0 4:0.4 5:0.6 6:0 7:0 
2.553456289785393 1:0.04 2:0.475 3:1 4:0.7 5:0.7 6:0 7:0 
0.002103445245934932 1:0.04 2:0.4 3:1 4:0.6 5:0.5 6:0 7:0 
32 1:0.08 2:0.491667 3:0 4:0.4 5:0.6 6:0 7:0 
0.004270445598858276 1:0.44 2:1 3:1 4:0.7 5:0.7 6:0 7:0 
7.614544555075548 1:0.04 2:0.6 3:0 4:0.4 5:0.6 6:0 7:0 
0.005961783569868214 1:0.04 2:1 3:1 4:0.7 5:0.7 6:0 7:0 
32 1:0.04 2:0.4 3:0 4:0.7 5:0.7 6:0 7:0 
32 1:0.04 2:0.408333 3:0 4:0.4 5:0.6 6:0 7:0 
19.33227160375992 1:0.46 2:0.625 3:0 4:0.7 5:0.3 6:1 7:0.4 
14.88885156048526 1:0.11 2:0.308333 3:0 4:0.7 5:0.7 6:0 7:0 
2.029219154226505 1:0.11 2:0.791667 3:0 4:0.7 5:0.7 6:2 7:0.6 
32 1:0.11 2:0.316667 3:0 4:0.4 5:0.6 6:0 7:0 
1.543699023846438 1:0.25 2:0.566667 3:1 4:0.9 5:0.7 6:0 7:0 
3.221982752350477 1:0.12 2:0.475 3:0 4:0.9 5:0.7 6:2 7:0.2 
32 1:0.1 2:0.366667 3:0 4:0.4 5:0.6 6:0 7:0 
7.098009403164586 1:0.15 2:0.591667 3:1 4:0.7 5:0.7 6:2 7:0.2 
32 1:0.09 2:0.433333 3:0 4:0.7 5:0.7 6:0 7:0 
32 1:0.09 2:0.433333 3:0 4:0.7 5:0.7 6:0 7:0 
32 1:0.09 2:0.425 3:0 4:0.7 5:0.7 6:0 7:0 
10.76725863634284 1:0.09 2:0.508333 3:0 4:0.7 5:0.7 6:0 7:0 
32 1:0.04 2:0.466667 3:0 4:0.7 5:0.7 6:0 7:0 
32 1:0.11 2:0.433333 3:1 4:0.7 5:0.7 6:0 7:0 
32 1:0.12 2:0.425 3:1 4:0.7 5:0.7 6:0 7:0 
2.185754878107412 1:0.18 2:0.633333 3:1 4:0.7 5:0.5 6:2 7:0.2 
32 1:0.06 2:0.475 3:0 4:0.7 5:0.7 6:0 7:0 
3.608228689969052 1:0.12 2:0.408333 3:1 4:0.7 5:0.7 6:0 7:0 
25.51044297954961 1:0.06 2:0.408333 3:1 4:0.7 5:0.7 6:0 7:0 
0.2372638232683634 1:0.04 2:0.366667 3:1 4:0.7 5:0.7 6:0 7:0 
1.795843327311487 1:0.04 2:0.366667 3:1 4:0.7 5:0.7 6:0 7:0 
5.357140947875095 1:0.07 2:0.4 3:1 4:0.7 5:0.7 6:0 7:0 
12.61137206977715 1:0.1 2:0.4 3:1 4:0.7 5:0.7 6:0 7:0 
5.987116650216094 1:0.12 2:0.366667 3:1 4:0.7 5:0.7 6:0 7:0 
32 1:0.09 2:0.358333 3:0 4:0.7 5:0.7 6:0 7:0 
19.08230995865846 1:0.11 2:0.641667 3:0 4:0.7 5:0.7 6:0 7:0 
2.95329089007192 1:0.09 2:0.366667 3:1 4:0.7 5:0.7 6:0 7:0 
32 1:0.02 2:0.2 3:0 4:0.4 5:0.6 6:0 7:0 
0.6083971082276358 1:0.28 2:0.558333 3:1 4:0.7 5:0.7 6:1 7:0.2 
0.004237273496255615 1:0.04 2:0.558333 3:1 4:0.7 5:0.7 6:1 7:0.2 
2.460446128071105 1:0.04 2:0.558333 3:1 4:0.7 5:0.7 6:1 7:0.2 
2.081542930929968 1:0.04 2:0.475 3:1 4:0.7 5:0.7 6:0 7:0 
2.00452887683758 1:0.04 2:0.4 3:1 4:0.6 5:0.5 6:0 7:0 
1.513792963889663 1:0.02 2:0.741667 3:0 4:0.7 5:0.2 6:2 7:0.2 
0.8930092277164776 1:0.04 2:1 3:1 4:0.7 5:0.2 6:1 7:0.6 
0.008337281931348911 1:0.04 2:1 3:1 4:0.4 5:0.6 6:0 7:0 
0.06810013937361863 1:0.04 2:1 3:1 4:0.7 5:0.7 6:0 7:0 
0.706680170371123 1:0.66 2:1 3:1 4:0.4 5:0.6 6:0 7:0 
32 1:0.08 2:0.491667 3:0 4:0.4 5:0.6 6:0 7:0 
0.907785790625276 1:0.91 2:1 3:1 4:0.7 5:0.7 6:0 7:0 
0.3841279067198352 1:0.44 2:1 3:1 4:0.7 5:0.7 6:0 7:0 
0.7354543004144342 1:0.04 2:1 3:1 4:0.4 5:0.6 6:0 7:0 
25.7165727431363 1:0.04 2:0.6 3:0 4:0.4 5:0.6 6:0 7:0 
0.4076026173073111 1:0.04 2:1 3:1 4:0.7 5:0.7 6:0 7:0 
32 1:0.04 2:0.4 3:0 4:0.7 5:0.7 6:0 7:0 
1.680879689526887 1:0.03 2:0.608333 3:1 4:0.7 5:0.3 6:1 7:0.4 
32 1:0.04 2:0.408333 3:0 4:0.4 5:0.6 6:0 7:0 
24.2244433138422 1:0.27 2:0.408333 3:0 4:0.4 5:0.6 6:0 7:0 
1.107679767157441 1:0.68 2:0.625 3:1 4:0.7 5:0.3 6:1 7:0.4 
32 1:0.27 2:0.408333 3:0 4:0.4 5:0.6 6:0 7:0 
32 1:0.46 2:0.625 3:0 4:0.7 5:0.3 6:1 7:0.4 
31.84196880244963 1:0.27 2:0.408333 3:0 4:0.4 5:0.6 6:0 7:0 
4.752955818086263 1:0.24 2:0.408333 3:1 4:0.4 5:0.6 6:0 7:0 
-0.01030192767839995 1:0.06 2:0.308333 3:1 4:0.4 5:0.6 6:0 7:0 
-0.5319680241410143 1:0.17 2:0.208333 3:0 4:0.4 5:0.6 6:0 7:0 
-0.001036449962703204 1:0.14 2:0.591667 3:0 4:0.7 5:0.2 6:2 7:0.6 
-24.9274440492772 1:0.13 2:0.275 3:0 4:0.4 5:0.6 6:0 7:0 
-0.0008087774722126267 1:0.13 2:0.6 3:1 4:0.7 5:0.2 6:2 7:0.6 
-32 1:0.07 2:0.383333 3:0 4:0.7 5:0.7 6:0 7:0 
-0.03942025740715886 1:0.04 2:0.841667 3:0 4:0.4 5:0.6 6:2 7:0.6 
-0.3590332569718502 1:0.01 2:0.2 3:0 4:0.4 5:0.6 6:0 7:0 
-0.004982958740271169 1:0.04 2:0.425 3:1 4:0.4 5:0.6 6:1 7:0.2 
-0.005047867743978626 1:0.1 2:1 3:1 4:0.4 5:0.6 6:2 7:0.6 
-0.005305542608670442 1:0.1 2:0.591667 3:0 4:0.1 5:0.7 6:2 7:0.2 
-0.005202862763117074 1:0.04 2:0.375 3:1 4:0.7 5:0.5 6:1 7:0.2 
-32 1:0.06 2:0.616667 3:0 4:0.7 5:0.7 6:0 7:0 
-32 1:0.19 2:0.425 3:0 4:0.7 5:0.7 6:0 7:0 
-0.002951484253475633 1:0.17 2:0.45 3:1 4:0.7 5:0.7 6:2 7:0.2 
-0.003563581069100328 1:0.04 2:0.508333 3:0 4:0.7 5:0.7 6:2 7:0.2 
-0.001440548098551949 1:0.04 2:0.375 3:0 4:0.1 5:0.3 6:0 7:0 
-0.001228120620353887 1:0.02 2:0.241667 3:0 4:0.4 5:0.6 6:2 7:0.2 
-32 1:0.09 2:0.366667 3:0 4:0.7 5:0.7 6:0 7:0 
-0.00159117393751108 1:0.02 2:0.433333 3:0 4:0.1 5:0.7 6:2 7:0.2 
-32 1:0.04 2:0.425 3:0 4:0.4 5:0.6 6:0 7:0 
-32 1:0.07 2:0.408333 3:1 4:0.7 5:0.7 6:0 7:0 
-32 1:0.12 2:0.416667 3:1 4:0.7 5:0.7 6:0 7:0 
-0.001251705430700558 1:0.03 2:0.616667 3:0 4:0.4 5:0.6 6:1 7:0.2 
-0.004557808701397312 1:0.02 2:0.666667 3:1 4:0.4 5:0.6 6:1 7:0.4 
-0.00240491959863091 1:0.02 2:0.466667 3:0 4:0.7 5:0.7 6:1 7:0.2 
-32 1:0.11 2:0.433333 3:1 4:0.7 5:0.7 6:0 7:0 
-0.008877010090589946 1:0.13 2:0.466667 3:0 4:0.4 5:0.6 6:1 7:0.2 
-0.0166836526751191 1:0.16 2:0.458333 3:1 4:0.1 5:0.7 6:0 7:0 
-0.006068548523216276 1:0.1 2:0.291667 3:0 4:0.7 5:0.5 6:0 7:0 
-32 1:0.04 2:0.425 3:0 4:0.7 5:0.7 6:0 7:0 
-32 1:0.04 2:0.441667 3:0 4:0.7 5:0.7 6:0 7:0 
-32 1:0.04 2:0.441667 3:0 4:0.7 5:0.7 6:0 7:0 
-32 1:0.04 2:0.441667 3:0 4:0.7 5:0.7 6:0 7:0 
-0.01245877208325752 1:0.04 2:0.466667 3:0 4:0.7 5:0.7 6:0 7:0 
-30.57175507038514 1:0.17 2:0.458333 3:0 4:0.4 5:0.6 6:0 7:0 
-25.90712580542723 1:0.21 2:0.508333 3:0 4:0.4 5:0.6 6:0 7:0 
-32 1:0.04 2:0.45 3:0 4:0.4 5:0.6 6:0 7:0 
-32 1:0.15 2:0.366667 3:0 4:0.4 5:0.6 6:0 7:0 
-19.06593264730475 1:0.51 2:0.625 3:0 4:0.7 5:0.3 6:1 7:0.4 
-5.313530903222538 1:0.06 2:0.308333 3:1 4:0.4 5:0.6 6:0 7:0 
-1.510104717629498 1:0.02 2:0.5 3:0 4:0.1 5:0.7 6:0 7:0 
-14.29533948951051 1:0.17 2:0.208333 3:0 4:0.4 5:0.6 6:0 7:0 
-0.7422845232598598 1:0.02 2:0.575 3:0 4:0.4 5:0.6 6:2 7:0.8 
-1.174963457294735 1:0.14 2:0.591667 3:0 4:0.7 5:0.2 6:2 7:0.6 
-31.1595639259028 1:0.13 2:0.275 3:0 4:0.4 5:0.6 6:0 7:0 
-0.09357377895028597 1:0.13 2:0.6 3:1 4:0.7 5:0.2 6:2 7:0.6 
-32 1:0.07 2:0.383333 3:0 4:0.7 5:0.7 6:0 7:0 
-0.8776736398775042 1:0.04 2:1 3:0 4:0.4 5:0.6 6:2 7:0.6 
-0.4115584175076591 1:0.04 2:0.841667 3:0 4:0.4 5:0.6 6:2 7:0.6 
-0.3243705776160721 1:0.04 2:0.425 3:1 4:0.4 5:0.6 6:1 7:0.2 
-0.5965033320452802 1:0.1 2:1 3:1 4:0.4 5:0.6 6:2 7:0.6 
-0.119542726617746 1:0.1 2:0.591667 3:0 4:0.1 5:0.7 6:2 7:0.2 
-2.596045031018905 1:0.04 2:0.375 3:1 4:0.7 5:0.5 6:1 7:0.2 
-0.9673905125335149 1:0.1 2:0.508333 3:1 4:0.4 5:0.6 6:2 7:0.2 
-32 1:0.06 2:0.616667 3:0 4:0.7 5:0.7 6:0 7:0 
-32 1:0.19 2:0.425 3:0 4:0.7 5:0.7 6:0 7:0 
-6.742180216618927 1:0.17 2:0.45 3:1 4:0.7 5:0.7 6:2 7:0.2 
-0.214418460402972 1:0.03 2:0.625 3:0 4:0.1 5:0.7 6:2 7:0.2 
-3.215923368374087 1:0.04 2:0.508333 3:0 4:0.7 5:0.7 6:2 7:0.2 
-0.4867119072766382 1:0.04 2:0.375 3:0 4:0.1 5:0.3 6:0 7:0 
-0.04828542889292521 1:0.02 2:0.241667 3:0 4:0.4 5:0.6 6:2 7:0.2 
-32 1:0.09 2:0.366667 3:0 4:0.7 5:0.7 6:0 7:0 
-0.6590240726289612 1:0.04 2:0.425 3:1 4:0.7 5:0.2 6:2 7:0.2 
-0.3627427370976213 1:0.02 2:0.433333 3:0 4:0.1 5:0.7 6:2 7:0.2 
-32 1:0.04 2:0.425 3:0 4:0.4 5:0.6 6:0 7:0 
-32 1:0.07 2:0.408333 3:1 4:0.7 5:0.7 6:0 7:0 
-32 1:0.12 2:0.416667 3:1 4:0.7 5:0.7 6:0 7:0 
-0.0866810436714146 1:0.02 2:0.4 3:0 4:0.7 5:0.7 6:2 7:0.2 
-0.423176726522708 1:0.03 2:0.616667 3:0 4:0.4 5:0.6 6:1 7:0.2 
-1.506080408069526 1:0.02 2:0.666667 3:1 4:0.4 5:0.6 6:1 7:0.4 
-0.8589225714125633 1:0.02 2:0.466667 3:0 4:0.7 5:0.7 6:1 7:0.2 
-32 1:0.11 2:0.433333 3:1 4:0.7 5:0.7 6:0 7:0 
-0.8933929013239646 1:0.13 2:0.466667 3:0 4:0.4 5:0.6 6:1 7:0.2 
-2.847515102084278 1:0.04 2:0.691667 3:1 4:0.7 5:0.5 6:2 7:0.4 
-23.1504479169445 1:0.01 2:0.2 3:0 4:0.4 5:0.6 6:0 7:0 
-29.39199179977318 1:0.01 2:0.2 3:0 4:0.4 5:0.6 6:0 7:0 
-1.101806000533421 1:0.16 2:0.458333 3:1 4:0.1 5:0.7 6:0 7:0 
-2.806508168543159 1:0.1 2:0.291667 3:0 4:0.7 5:0.5 6:0 7:0 
-32 1:0.04 2:0.425 3:0 4:0.7 5:0.7 6:0 7:0 
-32 1:0.04 2:0.441667 3:0 4:0.7 5:0.7 6:0 7:0 
-32 1:0.04 2:0.441667 3:0 4:0.7 5:0.7 6:0 7:0 
-32 1:0.04 2:0.441667 3:0 4:0.7 5:0.7 6:0 7:0 
-20.30019406530459 1:0.04 2:0.466667 3:0 4:0.7 5:0.7 6:0 7:0 
-32 1:0.17 2:0.458333 3:0 4:0.4 5:0.6 6:0 7:0 
-28.19516863895765 1:0.21 2:0.508333 3:0 4:0.4 5:0.6 6:0 7:0 
-32 1:0.04 2:0.45 3:0 4:0.4 5:0.6 6:0 7:0 
-32 1:0.15 2:0.366667 3:0 4:0.4 5:0.6 6:0 7:0 
-32 1:0.51 2:0.625 3:0 4:0.7 5:0.3 6:1 7:0.4 
